<?xml version="1.0"?>
<opencv_storage>
<stage5>
  <maxWeakCount>16</maxWeakCount>
  <stageThreshold>-3.6591336131095886e-01</stageThreshold>
  <weakClassifiers>
    <_>
      <internalNodes>
        0 -1 59491 -1.0065251961350441e-02</internalNodes>
      <leafValues>
        -2.2842639684677124e-01 5.3345388174057007e-01</leafValues></_>
    <_>
      <internalNodes>
        0 -1 115000 -4.9936454743146896e-03</internalNodes>
      <leafValues>
        5.6547933816909790e-01 -1.0944874584674835e-01</leafValues></_>
    <_>
      <internalNodes>
        0 -1 58864 5.6811128742992878e-03</internalNodes>
      <leafValues>
        2.1785449981689453e-01 -4.4981119036674500e-01</leafValues></_>
    <_>
      <internalNodes>
        0 -1 14660 -1.7579078674316406e-02</internalNodes>
      <leafValues>
        5.5943942070007324e-01 -1.2722921371459961e-01</leafValues></_>
    <_>
      <internalNodes>
        0 -1 154200 3.0951015651226044e-02</internalNodes>
      <leafValues>
        -1.4284995198249817e-01 6.7730367183685303e-01</leafValues></_>
    <_>
      <internalNodes>
        0 -1 154024 -6.1597814783453941e-03</internalNodes>
      <leafValues>
        5.0193524360656738e-01 -1.8027016520500183e-01</leafValues></_>
    <_>
      <internalNodes>
        0 -1 162204 4.9378589028492570e-04</internalNodes>
      <leafValues>
        1.6240553557872772e-01 -4.6771013736724854e-01</leafValues></_>
    <_>
      <internalNodes>
        0 -1 13026 2.6639532297849655e-03</internalNodes>
      <leafValues>
        -1.2099771201610565e-01 5.8093637228012085e-01</leafValues></_>
    <_>
      <internalNodes>
        0 -1 149397 -8.0329761840403080e-04</internalNodes>
      <leafValues>
        -6.0735929012298584e-01 1.2918674945831299e-01</leafValues></_>
    <_>
      <internalNodes>
        0 -1 80898 -1.5289304777979851e-02</internalNodes>
      <leafValues>
        6.1516308784484863e-01 -1.2413196265697479e-01</leafValues></_>
    <_>
      <internalNodes>
        0 -1 73173 1.6280520707368851e-02</internalNodes>
      <leafValues>
        -1.0760287195444107e-01 6.3256269693374634e-01</leafValues></_>
    <_>
      <internalNodes>
        0 -1 128671 6.6447667777538300e-03</internalNodes>
      <leafValues>
        -9.8419226706027985e-02 6.4236086606979370e-01</leafValues></_>
    <_>
      <internalNodes>
        0 -1 128291 -8.9679472148418427e-03</internalNodes>
      <leafValues>
        4.7733494639396667e-01 -1.5407855808734894e-01</leafValues></_>
    <_>
      <internalNodes>
        0 -1 112574 1.4205384650267661e-04</internalNodes>
      <leafValues>
        2.9732289910316467e-01 -2.3815220594406128e-01</leafValues></_>
    <_>
      <internalNodes>
        0 -1 10585 6.4195375889539719e-03</internalNodes>
      <leafValues>
        -8.6979620158672333e-02 9.3623036146163940e-01</leafValues></_>
    <_>
      <internalNodes>
        0 -1 5 4.0082260966300964e-04</internalNodes>
      <leafValues>
        2.1353678405284882e-01 -3.7868216633796692e-01</leafValues></_></weakClassifiers></stage5>
</opencv_storage>
