<?xml version="1.0"?>
<opencv_storage>
<stage1>
  <maxWeakCount>14</maxWeakCount>
  <stageThreshold>-8.2206857204437256e-01</stageThreshold>
  <weakClassifiers>
    <_>
      <internalNodes>
        0 -1 82738 -5.6495025753974915e-02</internalNodes>
      <leafValues>
        5.5993431806564331e-01 -6.4539009332656860e-01</leafValues></_>
    <_>
      <internalNodes>
        0 -1 111225 5.3930323338136077e-04</internalNodes>
      <leafValues>
        2.4970789253711700e-01 -3.9291417598724365e-01</leafValues></_>
    <_>
      <internalNodes>
        0 -1 24865 -2.4236442521214485e-02</internalNodes>
      <leafValues>
        1.6611851751804352e-01 -6.7607289552688599e-01</leafValues></_>
    <_>
      <internalNodes>
        0 -1 153048 -2.1792780607938766e-03</internalNodes>
      <leafValues>
        3.7537086009979248e-01 -2.8220146894454956e-01</leafValues></_>
    <_>
      <internalNodes>
        0 -1 80299 6.7156711593270302e-03</internalNodes>
      <leafValues>
        1.1325306445360184e-01 -7.3525446653366089e-01</leafValues></_>
    <_>
      <internalNodes>
        0 -1 132551 1.4064725837670267e-04</internalNodes>
      <leafValues>
        2.0496150851249695e-01 -4.4049200415611267e-01</leafValues></_>
    <_>
      <internalNodes>
        0 -1 52277 -2.5816252455115318e-02</internalNodes>
      <leafValues>
        6.3804596662521362e-01 -1.3216784596443176e-01</leafValues></_>
    <_>
      <internalNodes>
        0 -1 131502 1.0796561837196350e-03</internalNodes>
      <leafValues>
        1.8554994463920593e-01 -4.2096149921417236e-01</leafValues></_>
    <_>
      <internalNodes>
        0 -1 131527 -1.6978170722723007e-02</internalNodes>
      <leafValues>
        1.7950554192066193e-01 -5.0889486074447632e-01</leafValues></_>
    <_>
      <internalNodes>
        0 -1 22183 8.7900130893103778e-05</internalNodes>
      <leafValues>
        2.9776996374130249e-01 -3.3923143148422241e-01</leafValues></_>
    <_>
      <internalNodes>
        0 -1 122044 -1.4511190354824066e-02</internalNodes>
      <leafValues>
        5.1949328184127808e-01 -1.8458466231822968e-01</leafValues></_>
    <_>
      <internalNodes>
        0 -1 98053 -6.9173686206340790e-03</internalNodes>
      <leafValues>
        -6.6942852735519409e-01 1.2609922885894775e-01</leafValues></_>
    <_>
      <internalNodes>
        0 -1 114625 3.5887695848941803e-02</internalNodes>
      <leafValues>
        1.1714629083871841e-01 -7.4295383691787720e-01</leafValues></_>
    <_>
      <internalNodes>
        0 -1 88057 -3.2772973179817200e-02</internalNodes>
      <leafValues>
        7.0239119231700897e-02 -8.7799811363220215e-01</leafValues></_></weakClassifiers></stage1>
</opencv_storage>
