<?xml version="1.0"?>
<opencv_storage>
<stage9>
  <maxWeakCount>18</maxWeakCount>
  <stageThreshold>-5.5637693405151367e-01</stageThreshold>
  <weakClassifiers>
    <_>
      <internalNodes>
        0 -1 155167 2.9488475993275642e-03</internalNodes>
      <leafValues>
        6.1320755630731583e-02 6.8711656332015991e-01</leafValues></_>
    <_>
      <internalNodes>
        0 -1 16304 -3.8010567426681519e-02</internalNodes>
      <leafValues>
        -9.2645752429962158e-01 1.4102311432361603e-01</leafValues></_>
    <_>
      <internalNodes>
        0 -1 34934 -2.9152035713195801e-03</internalNodes>
      <leafValues>
        5.2134990692138672e-01 -1.3778397440910339e-01</leafValues></_>
    <_>
      <internalNodes>
        0 -1 134134 1.0991029441356659e-02</internalNodes>
      <leafValues>
        -2.5245043635368347e-01 3.4552046656608582e-01</leafValues></_>
    <_>
      <internalNodes>
        0 -1 69575 4.9892993411049247e-04</internalNodes>
      <leafValues>
        -1.9599616527557373e-01 3.5238993167877197e-01</leafValues></_>
    <_>
      <internalNodes>
        0 -1 161954 1.2678769417107105e-03</internalNodes>
      <leafValues>
        -1.6636408865451813e-01 4.0081071853637695e-01</leafValues></_>
    <_>
      <internalNodes>
        0 -1 161889 2.7308943681418896e-03</internalNodes>
      <leafValues>
        -1.3857449591159821e-01 4.8804551362991333e-01</leafValues></_>
    <_>
      <internalNodes>
        0 -1 73652 -3.6606922745704651e-02</internalNodes>
      <leafValues>
        2.1779114007949829e-01 -2.9931798577308655e-01</leafValues></_>
    <_>
      <internalNodes>
        0 -1 12581 -4.6475194394588470e-03</internalNodes>
      <leafValues>
        4.2096781730651855e-01 -1.6008481383323669e-01</leafValues></_>
    <_>
      <internalNodes>
        0 -1 126836 2.9040209483355284e-03</internalNodes>
      <leafValues>
        1.2364487349987030e-01 -5.4091572761535645e-01</leafValues></_>
    <_>
      <internalNodes>
        0 -1 134147 -2.8488069772720337e-01</internalNodes>
      <leafValues>
        -7.3086577653884888e-01 8.5055738687515259e-02</leafValues></_>
    <_>
      <internalNodes>
        0 -1 129873 -5.6414781138300896e-03</internalNodes>
      <leafValues>
        4.3918302655220032e-01 -1.4935059845447540e-01</leafValues></_>
    <_>
      <internalNodes>
        0 -1 52919 -2.0003208890557289e-02</internalNodes>
      <leafValues>
        8.2134878635406494e-01 -5.7514965534210205e-02</leafValues></_>
    <_>
      <internalNodes>
        0 -1 155230 -3.6492772400379181e-02</internalNodes>
      <leafValues>
        -9.0016394853591919e-01 6.5985709428787231e-02</leafValues></_>
    <_>
      <internalNodes>
        0 -1 155109 -5.7779434137046337e-03</internalNodes>
      <leafValues>
        6.0993683338165283e-01 -1.0689849406480789e-01</leafValues></_>
    <_>
      <internalNodes>
        0 -1 147988 9.9665950983762741e-03</internalNodes>
      <leafValues>
        -1.3894449174404144e-01 4.8229241371154785e-01</leafValues></_>
    <_>
      <internalNodes>
        0 -1 6794 -1.5827350318431854e-02</internalNodes>
      <leafValues>
        5.2020847797393799e-01 -1.0191001743078232e-01</leafValues></_>
    <_>
      <internalNodes>
        0 -1 160862 -1.1278958991169930e-03</internalNodes>
      <leafValues>
        2.6382949948310852e-01 -2.2637836635112762e-01</leafValues></_></weakClassifiers></stage9>
</opencv_storage>
