<?xml version="1.0"?>
<opencv_storage>
<stage3>
  <maxWeakCount>17</maxWeakCount>
  <stageThreshold>-7.1663761138916016e-01</stageThreshold>
  <weakClassifiers>
    <_>
      <internalNodes>
        0 -1 122753 -4.8880107700824738e-02</internalNodes>
      <leafValues>
        6.1386138200759888e-01 5.7803466916084290e-03</leafValues></_>
    <_>
      <internalNodes>
        0 -1 25809 -5.4998847190290689e-04</internalNodes>
      <leafValues>
        -3.8451179862022400e-01 2.3895537853240967e-01</leafValues></_>
    <_>
      <internalNodes>
        0 -1 13552 1.2464746832847595e-03</internalNodes>
      <leafValues>
        2.2384695708751678e-01 -3.3711209893226624e-01</leafValues></_>
    <_>
      <internalNodes>
        0 -1 33814 3.4008652437478304e-04</internalNodes>
      <leafValues>
        1.6099737584590912e-01 -4.6856996417045593e-01</leafValues></_>
    <_>
      <internalNodes>
        0 -1 150816 1.0256505338475108e-03</internalNodes>
      <leafValues>
        1.5998414158821106e-01 -4.3376967310905457e-01</leafValues></_>
    <_>
      <internalNodes>
        0 -1 984 1.4164298772811890e-02</internalNodes>
      <leafValues>
        -1.2011198699474335e-01 6.7720562219619751e-01</leafValues></_>
    <_>
      <internalNodes>
        0 -1 148947 -5.7444296544417739e-04</internalNodes>
      <leafValues>
        -4.0233671665191650e-01 2.0104777812957764e-01</leafValues></_>
    <_>
      <internalNodes>
        0 -1 159535 1.4755494892597198e-02</internalNodes>
      <leafValues>
        -1.4387577772140503e-01 5.7091259956359863e-01</leafValues></_>
    <_>
      <internalNodes>
        0 -1 11440 1.7301842570304871e-02</internalNodes>
      <leafValues>
        1.2082451581954956e-01 -5.3037500381469727e-01</leafValues></_>
    <_>
      <internalNodes>
        0 -1 23530 -1.1433379352092743e-01</internalNodes>
      <leafValues>
        -6.8181854486465454e-01 1.0371405631303787e-01</leafValues></_>
    <_>
      <internalNodes>
        0 -1 35170 -2.0878037810325623e-01</internalNodes>
      <leafValues>
        1.4305408298969269e-01 -5.4177707433700562e-01</leafValues></_>
    <_>
      <internalNodes>
        0 -1 31770 5.3448127582669258e-03</internalNodes>
      <leafValues>
        1.1537356674671173e-01 -6.2042874097824097e-01</leafValues></_>
    <_>
      <internalNodes>
        0 -1 102262 -2.2161779925227165e-03</internalNodes>
      <leafValues>
        -7.9435122013092041e-01 1.0237825661897659e-01</leafValues></_>
    <_>
      <internalNodes>
        0 -1 161446 -9.2800483107566833e-03</internalNodes>
      <leafValues>
        6.7680251598358154e-01 -1.3752900063991547e-01</leafValues></_>
    <_>
      <internalNodes>
        0 -1 13176 9.8911521490663290e-05</internalNodes>
      <leafValues>
        2.3606108129024506e-01 -3.5229712724685669e-01</leafValues></_>
    <_>
      <internalNodes>
        0 -1 119884 -2.9504788108170033e-04</internalNodes>
      <leafValues>
        -4.3570584058761597e-01 1.5859623253345490e-01</leafValues></_>
    <_>
      <internalNodes>
        0 -1 27740 3.9749647839926183e-04</internalNodes>
      <leafValues>
        1.5719388425350189e-01 -4.8798817396163940e-01</leafValues></_></weakClassifiers></stage3>
</opencv_storage>
