<?xml version="1.0"?>
<opencv_storage>
<stage6>
  <maxWeakCount>17</maxWeakCount>
  <stageThreshold>-4.5737415552139282e-01</stageThreshold>
  <weakClassifiers>
    <_>
      <internalNodes>
        0 -1 88730 -2.1301248669624329e-01</internalNodes>
      <leafValues>
        -1.1188811063766479e-01 6.0775864124298096e-01</leafValues></_>
    <_>
      <internalNodes>
        0 -1 161499 8.2817841321229935e-03</internalNodes>
      <leafValues>
        -9.9973894655704498e-02 7.1016299724578857e-01</leafValues></_>
    <_>
      <internalNodes>
        0 -1 5071 1.0645438916981220e-02</internalNodes>
      <leafValues>
        -1.4387571811676025e-01 6.4102613925933838e-01</leafValues></_>
    <_>
      <internalNodes>
        0 -1 11873 -1.0126663371920586e-02</internalNodes>
      <leafValues>
        -5.7237029075622559e-01 1.6249668598175049e-01</leafValues></_>
    <_>
      <internalNodes>
        0 -1 161761 -2.6013222523033619e-03</internalNodes>
      <leafValues>
        4.8972597718238831e-01 -1.7168422043323517e-01</leafValues></_>
    <_>
      <internalNodes>
        0 -1 11047 -3.2125073485076427e-03</internalNodes>
      <leafValues>
        7.0051795244216919e-01 -5.0222698599100113e-02</leafValues></_>
    <_>
      <internalNodes>
        0 -1 161693 3.2316209399141371e-04</internalNodes>
      <leafValues>
        1.6862292587757111e-01 -4.1451096534729004e-01</leafValues></_>
    <_>
      <internalNodes>
        0 -1 139869 -2.6575908064842224e-02</internalNodes>
      <leafValues>
        5.3447556495666504e-01 -1.4589367806911469e-01</leafValues></_>
    <_>
      <internalNodes>
        0 -1 160073 1.8047304183710366e-04</internalNodes>
      <leafValues>
        1.9557146728038788e-01 -3.7933364510536194e-01</leafValues></_>
    <_>
      <internalNodes>
        0 -1 138132 9.4562433660030365e-03</internalNodes>
      <leafValues>
        -9.1045625507831573e-02 7.6379621028900146e-01</leafValues></_>
    <_>
      <internalNodes>
        0 -1 69750 1.2615507002919912e-03</internalNodes>
      <leafValues>
        1.7547014355659485e-01 -4.6350967884063721e-01</leafValues></_>
    <_>
      <internalNodes>
        0 -1 159615 2.1329200826585293e-03</internalNodes>
      <leafValues>
        -1.6273391246795654e-01 5.2350598573684692e-01</leafValues></_>
    <_>
      <internalNodes>
        0 -1 71197 6.7088881041854620e-04</internalNodes>
      <leafValues>
        -2.3565857112407684e-01 3.1157258152961731e-01</leafValues></_>
    <_>
      <internalNodes>
        0 -1 105455 -1.0914269089698792e-01</internalNodes>
      <leafValues>
        -1.6553339362144470e-01 4.8143517971038818e-01</leafValues></_>
    <_>
      <internalNodes>
        0 -1 134408 -3.0719960108399391e-02</internalNodes>
      <leafValues>
        6.3109248876571655e-01 -1.3347673416137695e-01</leafValues></_>
    <_>
      <internalNodes>
        0 -1 73774 -3.2047304511070251e-01</internalNodes>
      <leafValues>
        -5.8547955751419067e-01 1.3900078833103180e-01</leafValues></_>
    <_>
      <internalNodes>
        0 -1 97233 7.0237054023891687e-04</internalNodes>
      <leafValues>
        2.2525070607662201e-01 -3.2711547613143921e-01</leafValues></_></weakClassifiers></stage6>
</opencv_storage>
