<?xml version="1.0"?>
<opencv_storage>
<stage10>
  <maxWeakCount>46</maxWeakCount>
  <stageThreshold>-1.0604645013809204e+00</stageThreshold>
  <weakClassifiers>
    <_>
      <internalNodes>
        0 -1 132987 9.0695898979902267e-03</internalNodes>
      <leafValues>
        -3.7195995450019836e-01 1.9607843458652496e-01</leafValues></_>
    <_>
      <internalNodes>
        0 -1 860 7.3225188255310059e-01</internalNodes>
      <leafValues>
        1.6196047887206078e-02 -7.3887580633163452e-01</leafValues></_>
    <_>
      <internalNodes>
        0 -1 133139 2.7841171249747276e-03</internalNodes>
      <leafValues>
        -4.2604692280292511e-02 4.2664149403572083e-01</leafValues></_>
    <_>
      <internalNodes>
        0 -1 61163 -5.0199556350708008e-01</internalNodes>
      <leafValues>
        -1. 2.3467876017093658e-02</leafValues></_>
    <_>
      <internalNodes>
        0 -1 112808 -1.9897585734724998e-03</internalNodes>
      <leafValues>
        -1. 2.2296037524938583e-02</leafValues></_>
    <_>
      <internalNodes>
        0 -1 13009 -4.5165623305365443e-05</internalNodes>
      <leafValues>
        1.2378288805484772e-01 -1.6639804840087891e-01</leafValues></_>
    <_>
      <internalNodes>
        0 -1 148030 1.3553637545555830e-03</internalNodes>
      <leafValues>
        2.3441541939973831e-02 -8.0003362894058228e-01</leafValues></_>
    <_>
      <internalNodes>
        0 -1 157235 -1.1011528782546520e-02</internalNodes>
      <leafValues>
        3.5189455747604370e-01 -5.4805729538202286e-02</leafValues></_>
    <_>
      <internalNodes>
        0 -1 159717 -9.5738039817661047e-04</internalNodes>
      <leafValues>
        -5.9184616804122925e-01 3.5552013665437698e-02</leafValues></_>
    <_>
      <internalNodes>
        0 -1 160783 6.1757741495966911e-03</internalNodes>
      <leafValues>
        -6.3741542398929596e-02 3.4106743335723877e-01</leafValues></_>
    <_>
      <internalNodes>
        0 -1 73781 -4.0467209182679653e-03</internalNodes>
      <leafValues>
        -8.5231924057006836e-01 3.1770989298820496e-02</leafValues></_>
    <_>
      <internalNodes>
        0 -1 98260 -1.1938653886318207e-02</internalNodes>
      <leafValues>
        -7.2655069828033447e-01 2.1367434412240982e-02</leafValues></_>
    <_>
      <internalNodes>
        0 -1 99413 -1.2107496149837971e-03</internalNodes>
      <leafValues>
        1.6576066613197327e-01 -1.3258604705333710e-01</leafValues></_>
    <_>
      <internalNodes>
        0 -1 42402 2.5707630440592766e-02</internalNodes>
      <leafValues>
        -4.0330927819013596e-02 5.2266108989715576e-01</leafValues></_>
    <_>
      <internalNodes>
        0 -1 41568 -3.6479136906564236e-03</internalNodes>
      <leafValues>
        2.2676172852516174e-01 -1.1388651281595230e-01</leafValues></_>
    <_>
      <internalNodes>
        0 -1 13003 -2.7145352214574814e-03</internalNodes>
      <leafValues>
        3.6610551178455353e-02 -5.7086908817291260e-01</leafValues></_>
    <_>
      <internalNodes>
        0 -1 161400 -2.3068790324032307e-04</internalNodes>
      <leafValues>
        -2.4604772031307220e-01 9.0273514389991760e-02</leafValues></_>
    <_>
      <internalNodes>
        0 -1 154050 -6.1217549955472350e-04</internalNodes>
      <leafValues>
        1.6019342839717865e-01 -1.5232107043266296e-01</leafValues></_>
    <_>
      <internalNodes>
        0 -1 83977 -1.6272136569023132e-01</internalNodes>
      <leafValues>
        -5.4896014928817749e-01 5.1640760153532028e-02</leafValues></_>
    <_>
      <internalNodes>
        0 -1 6705 1.6470210626721382e-02</internalNodes>
      <leafValues>
        -4.2357586324214935e-02 6.9226115942001343e-01</leafValues></_>
    <_>
      <internalNodes>
        0 -1 101202 -3.8344115018844604e-03</internalNodes>
      <leafValues>
        -9.2737591266632080e-01 2.8892561793327332e-02</leafValues></_>
    <_>
      <internalNodes>
        0 -1 74530 -7.9213511198759079e-03</internalNodes>
      <leafValues>
        3.4824714064598083e-01 -6.9485202431678772e-02</leafValues></_>
    <_>
      <internalNodes>
        0 -1 33813 1.3701550196856260e-03</internalNodes>
      <leafValues>
        4.9397651106119156e-02 -5.1002109050750732e-01</leafValues></_>
    <_>
      <internalNodes>
        0 -1 133553 6.2402081675827503e-04</internalNodes>
      <leafValues>
        7.5196936726570129e-02 -2.6834866404533386e-01</leafValues></_>
    <_>
      <internalNodes>
        0 -1 57815 2.8286879882216454e-02</internalNodes>
      <leafValues>
        -7.3057480156421661e-02 3.2298555970191956e-01</leafValues></_>
    <_>
      <internalNodes>
        0 -1 97699 -1.2876937398687005e-04</internalNodes>
      <leafValues>
        1.3461437821388245e-01 -1.5251082181930542e-01</leafValues></_>
    <_>
      <internalNodes>
        0 -1 69053 5.2931923419237137e-02</internalNodes>
      <leafValues>
        2.7567513287067413e-02 -8.5671240091323853e-01</leafValues></_>
    <_>
      <internalNodes>
        0 -1 112250 -4.6738456003367901e-03</internalNodes>
      <leafValues>
        -9.6762543916702271e-01 1.7361240461468697e-02</leafValues></_>
    <_>
      <internalNodes>
        0 -1 64401 1.3671638444066048e-02</internalNodes>
      <leafValues>
        -5.8746173977851868e-02 4.0231820940971375e-01</leafValues></_>
    <_>
      <internalNodes>
        0 -1 157481 -1.2691988609731197e-02</internalNodes>
      <leafValues>
        4.9078744649887085e-01 -4.3650779873132706e-02</leafValues></_>
    <_>
      <internalNodes>
        0 -1 117715 2.0313127897679806e-03</internalNodes>
      <leafValues>
        5.8085862547159195e-02 -3.6202421784400940e-01</leafValues></_>
    <_>
      <internalNodes>
        0 -1 133999 4.3063070625066757e-03</internalNodes>
      <leafValues>
        -5.6352201849222183e-02 4.5569062232971191e-01</leafValues></_>
    <_>
      <internalNodes>
        0 -1 27743 -1.0904224473051727e-04</internalNodes>
      <leafValues>
        -2.1056240797042847e-01 9.8733671009540558e-02</leafValues></_>
    <_>
      <internalNodes>
        0 -1 1163 -4.8256409354507923e-03</internalNodes>
      <leafValues>
        2.6449358463287354e-01 -8.6011596024036407e-02</leafValues></_>
    <_>
      <internalNodes>
        0 -1 10460 -2.1313894540071487e-03</internalNodes>
      <leafValues>
        1.5729874372482300e-01 -1.4015141129493713e-01</leafValues></_>
    <_>
      <internalNodes>
        0 -1 106481 4.6548950485885143e-03</internalNodes>
      <leafValues>
        -7.4291914701461792e-02 3.1098690629005432e-01</leafValues></_>
    <_>
      <internalNodes>
        0 -1 151379 7.2208303026854992e-04</internalNodes>
      <leafValues>
        5.4298877716064453e-02 -4.2517411708831787e-01</leafValues></_>
    <_>
      <internalNodes>
        0 -1 109715 8.9582204818725586e-03</internalNodes>
      <leafValues>
        -6.2502749264240265e-02 3.8462844491004944e-01</leafValues></_>
    <_>
      <internalNodes>
        0 -1 53279 -9.6443161368370056e-02</internalNodes>
      <leafValues>
        -4.4742107391357422e-01 5.9808369725942612e-02</leafValues></_>
    <_>
      <internalNodes>
        0 -1 3871 -6.3661879301071167e-01</internalNodes>
      <leafValues>
        -1. 1.7862439155578613e-02</leafValues></_>
    <_>
      <internalNodes>
        0 -1 159493 -1.8148187082260847e-03</internalNodes>
      <leafValues>
        -7.5411152839660645e-01 1.8091471865773201e-02</leafValues></_>
    <_>
      <internalNodes>
        0 -1 132123 5.6621599942445755e-03</internalNodes>
      <leafValues>
        -5.4065611213445663e-02 4.1506180167198181e-01</leafValues></_>
    <_>
      <internalNodes>
        0 -1 96720 1.2190599925816059e-02</internalNodes>
      <leafValues>
        6.2138587236404419e-02 -4.7864761948585510e-01</leafValues></_>
    <_>
      <internalNodes>
        0 -1 4848 -1.5665189921855927e-01</internalNodes>
      <leafValues>
        6.0861617326736450e-01 -4.0134124457836151e-02</leafValues></_>
    <_>
      <internalNodes>
        0 -1 161761 1.0080996900796890e-02</internalNodes>
      <leafValues>
        -4.4715091586112976e-02 5.2555084228515625e-01</leafValues></_>
    <_>
      <internalNodes>
        0 -1 73065 -1.4942851848900318e-03</internalNodes>
      <leafValues>
        -6.9572252035140991e-01 3.3951416611671448e-02</leafValues></_></weakClassifiers></stage10>
</opencv_storage>
