<?xml version="1.0"?>
<opencv_storage>
<stage11>
  <maxWeakCount>41</maxWeakCount>
  <stageThreshold>-8.6536759138107300e-01</stageThreshold>
  <weakClassifiers>
    <_>
      <internalNodes>
        0 -1 562 -8.2163652405142784e-04</internalNodes>
      <leafValues>
        -3.5138794779777527e-01 8.2608693838119507e-01</leafValues></_>
    <_>
      <internalNodes>
        0 -1 7475 -6.1255479231476784e-03</internalNodes>
      <leafValues>
        2.8976330161094666e-01 -9.5322556793689728e-02</leafValues></_>
    <_>
      <internalNodes>
        0 -1 5061 -8.0267656594514847e-03</internalNodes>
      <leafValues>
        3.6296314001083374e-01 -6.4288519322872162e-02</leafValues></_>
    <_>
      <internalNodes>
        0 -1 98245 4.4603580608963966e-03</internalNodes>
      <leafValues>
        4.7179821878671646e-02 -4.8322072625160217e-01</leafValues></_>
    <_>
      <internalNodes>
        0 -1 98240 3.9070644415915012e-03</internalNodes>
      <leafValues>
        -1.3933381997048855e-02 8.9781373739242554e-01</leafValues></_>
    <_>
      <internalNodes>
        0 -1 98240 4.3692803010344505e-03</internalNodes>
      <leafValues>
        1.5411805361509323e-03 -7.5825577974319458e-01</leafValues></_>
    <_>
      <internalNodes>
        0 -1 161499 5.5719679221510887e-03</internalNodes>
      <leafValues>
        -1.1083579063415527e-01 1.9971391558647156e-01</leafValues></_>
    <_>
      <internalNodes>
        0 -1 71384 2.8241691179573536e-03</internalNodes>
      <leafValues>
        -1.3133566081523895e-01 1.6851101815700531e-01</leafValues></_>
    <_>
      <internalNodes>
        0 -1 38423 -8.9284718036651611e-02</internalNodes>
      <leafValues>
        -3.5525661706924438e-01 6.6711902618408203e-02</leafValues></_>
    <_>
      <internalNodes>
        0 -1 70851 -1.7555262893438339e-02</internalNodes>
      <leafValues>
        3.5619455575942993e-01 -5.7451680302619934e-02</leafValues></_>
    <_>
      <internalNodes>
        0 -1 158957 5.3805168718099594e-03</internalNodes>
      <leafValues>
        -9.6735410392284393e-02 2.5121971964836121e-01</leafValues></_>
    <_>
      <internalNodes>
        0 -1 152908 3.0546000925824046e-04</internalNodes>
      <leafValues>
        9.1008402407169342e-02 -2.8865522146224976e-01</leafValues></_>
    <_>
      <internalNodes>
        0 -1 10617 -9.3640619888901711e-03</internalNodes>
      <leafValues>
        2.5651803612709045e-01 -9.7990624606609344e-02</leafValues></_>
    <_>
      <internalNodes>
        0 -1 47990 -1.4905061572790146e-02</internalNodes>
      <leafValues>
        -5.3421205282211304e-01 5.1022350788116455e-02</leafValues></_>
    <_>
      <internalNodes>
        0 -1 102262 -2.2049769759178162e-03</internalNodes>
      <leafValues>
        -4.7074800729751587e-01 4.3287929147481918e-02</leafValues></_>
    <_>
      <internalNodes>
        0 -1 80864 -6.1945775523781776e-03</internalNodes>
      <leafValues>
        2.2629985213279724e-01 -1.0371108353137970e-01</leafValues></_>
    <_>
      <internalNodes>
        0 -1 138414 1.2108200788497925e-01</internalNodes>
      <leafValues>
        3.5144980996847153e-02 -5.7640254497528076e-01</leafValues></_>
    <_>
      <internalNodes>
        0 -1 151607 5.3134150803089142e-03</internalNodes>
      <leafValues>
        -7.3343746364116669e-02 3.1120163202285767e-01</leafValues></_>
    <_>
      <internalNodes>
        0 -1 159210 -1.7122802091762424e-04</internalNodes>
      <leafValues>
        1.1659444868564606e-01 -2.1445819735527039e-01</leafValues></_>
    <_>
      <internalNodes>
        0 -1 159674 -3.4513935679569840e-04</internalNodes>
      <leafValues>
        -3.2600107789039612e-01 7.5945086777210236e-02</leafValues></_>
    <_>
      <internalNodes>
        0 -1 110236 -1.8766596913337708e-03</internalNodes>
      <leafValues>
        2.1004244685173035e-01 -1.0783307999372482e-01</leafValues></_>
    <_>
      <internalNodes>
        0 -1 98981 8.6953826248645782e-03</internalNodes>
      <leafValues>
        -8.5564345121383667e-02 2.6480525732040405e-01</leafValues></_>
    <_>
      <internalNodes>
        0 -1 86812 1.9507450982928276e-02</internalNodes>
      <leafValues>
        -6.1420802026987076e-02 3.8969832658767700e-01</leafValues></_>
    <_>
      <internalNodes>
        0 -1 89839 4.0283864364027977e-03</internalNodes>
      <leafValues>
        4.8184562474489212e-02 -4.9276104569435120e-01</leafValues></_>
    <_>
      <internalNodes>
        0 -1 98733 5.4926951415836811e-03</internalNodes>
      <leafValues>
        -3.9006143808364868e-02 5.7158088684082031e-01</leafValues></_>
    <_>
      <internalNodes>
        0 -1 144310 -1.6710635274648666e-02</internalNodes>
      <leafValues>
        5.1869046688079834e-01 -3.8630209863185883e-02</leafValues></_>
    <_>
      <internalNodes>
        0 -1 155257 2.6883645914494991e-03</internalNodes>
      <leafValues>
        6.4150169491767883e-02 -3.6812233924865723e-01</leafValues></_>
    <_>
      <internalNodes>
        0 -1 63222 -1.2925116717815399e-01</internalNodes>
      <leafValues>
        -5.8794367313385010e-01 3.1015519052743912e-02</leafValues></_>
    <_>
      <internalNodes>
        0 -1 108956 7.5023490935564041e-03</internalNodes>
      <leafValues>
        4.2186550796031952e-02 -4.5447170734405518e-01</leafValues></_>
    <_>
      <internalNodes>
        0 -1 161287 6.0303839854896069e-03</internalNodes>
      <leafValues>
        -6.8876601755619049e-02 3.4983021020889282e-01</leafValues></_>
    <_>
      <internalNodes>
        0 -1 138119 1.6138900537043810e-03</internalNodes>
      <leafValues>
        -6.6770270466804504e-02 3.2975912094116211e-01</leafValues></_>
    <_>
      <internalNodes>
        0 -1 56137 -1.5759982634335756e-03</internalNodes>
      <leafValues>
        -7.0175451040267944e-01 2.9199589043855667e-02</leafValues></_>
    <_>
      <internalNodes>
        0 -1 153662 2.8442426118999720e-03</internalNodes>
      <leafValues>
        4.3389178812503815e-02 -4.2347484827041626e-01</leafValues></_>
    <_>
      <internalNodes>
        0 -1 157805 8.5185356438159943e-03</internalNodes>
      <leafValues>
        -4.5796241611242294e-02 5.1130574941635132e-01</leafValues></_>
    <_>
      <internalNodes>
        0 -1 115817 3.0887130647897720e-02</internalNodes>
      <leafValues>
        -6.0423713177442551e-02 3.6658105254173279e-01</leafValues></_>
    <_>
      <internalNodes>
        0 -1 150149 -1.4347705990076065e-02</internalNodes>
      <leafValues>
        -8.0885249376296997e-01 2.9353508725762367e-02</leafValues></_>
    <_>
      <internalNodes>
        0 -1 149227 -1.1140664108097553e-02</internalNodes>
      <leafValues>
        4.2089489102363586e-01 -6.0170583426952362e-02</leafValues></_>
    <_>
      <internalNodes>
        0 -1 149144 4.2715287418104708e-04</internalNodes>
      <leafValues>
        9.1249473392963409e-02 -2.5264215469360352e-01</leafValues></_>
    <_>
      <internalNodes>
        0 -1 86471 -6.8043125793337822e-03</internalNodes>
      <leafValues>
        2.6291799545288086e-01 -8.6014129221439362e-02</leafValues></_>
    <_>
      <internalNodes>
        0 -1 101271 -2.3879446089267731e-03</internalNodes>
      <leafValues>
        -4.3136987090110779e-01 5.4392054677009583e-02</leafValues></_>
    <_>
      <internalNodes>
        0 -1 2128 1.9930773123633116e-04</internalNodes>
      <leafValues>
        9.9111430346965790e-02 -2.2013108432292938e-01</leafValues></_></weakClassifiers></stage11>
</opencv_storage>
