<?xml version="1.0"?>
<opencv_storage>
<stage13>
  <maxWeakCount>57</maxWeakCount>
  <stageThreshold>-1.0649796724319458e+00</stageThreshold>
  <weakClassifiers>
    <_>
      <internalNodes>
        0 -1 46089 -2.0722173154354095e-02</internalNodes>
      <leafValues>
        -5.6994819641113281e-01 -2.5134649872779846e-01</leafValues></_>
    <_>
      <internalNodes>
        0 -1 94326 -4.5209581730887294e-04</internalNodes>
      <leafValues>
        1.2194563448429108e-01 -1.6820070147514343e-01</leafValues></_>
    <_>
      <internalNodes>
        0 -1 14195 -3.3008229732513428e-01</internalNodes>
      <leafValues>
        -2.9306027293205261e-01 7.3782600462436676e-02</leafValues></_>
    <_>
      <internalNodes>
        0 -1 78895 2.0410760771483183e-03</internalNodes>
      <leafValues>
        1.1273895204067230e-01 -3.3806276321411133e-01</leafValues></_>
    <_>
      <internalNodes>
        0 -1 88086 2.1794321946799755e-03</internalNodes>
      <leafValues>
        -6.6544651985168457e-02 4.7946417331695557e-01</leafValues></_>
    <_>
      <internalNodes>
        0 -1 96857 -5.9273206716170534e-05</internalNodes>
      <leafValues>
        1.0282719880342484e-01 -2.0142674446105957e-01</leafValues></_>
    <_>
      <internalNodes>
        0 -1 127628 -9.7947614267468452e-04</internalNodes>
      <leafValues>
        2.4710679054260254e-01 -8.1268876791000366e-02</leafValues></_>
    <_>
      <internalNodes>
        0 -1 45033 8.7411869317293167e-03</internalNodes>
      <leafValues>
        -6.8366721272468567e-02 3.3784791827201843e-01</leafValues></_>
    <_>
      <internalNodes>
        0 -1 45025 -1.2925843708217144e-02</internalNodes>
      <leafValues>
        -5.0294661521911621e-01 4.6590533107519150e-02</leafValues></_>
    <_>
      <internalNodes>
        0 -1 149722 9.9627748131752014e-03</internalNodes>
      <leafValues>
        -5.8953143656253815e-02 3.2625183463096619e-01</leafValues></_>
    <_>
      <internalNodes>
        0 -1 148479 -6.6911373287439346e-03</internalNodes>
      <leafValues>
        1.9118927419185638e-01 -1.0787278413772583e-01</leafValues></_>
    <_>
      <internalNodes>
        0 -1 147698 2.9864424141123891e-04</internalNodes>
      <leafValues>
        7.9906612634658813e-02 -2.7856197953224182e-01</leafValues></_>
    <_>
      <internalNodes>
        0 -1 134794 -2.6420332491397858e-02</internalNodes>
      <leafValues>
        2.9227387905120850e-01 -7.0060059428215027e-02</leafValues></_>
    <_>
      <internalNodes>
        0 -1 123090 -4.6804398298263550e-02</internalNodes>
      <leafValues>
        -5.1179063320159912e-01 3.9403457194566727e-02</leafValues></_>
    <_>
      <internalNodes>
        0 -1 158017 -1.1113546788692474e-03</internalNodes>
      <leafValues>
        -2.2110861539840698e-01 9.7499132156372070e-02</leafValues></_>
    <_>
      <internalNodes>
        0 -1 153271 -4.9267478287220001e-02</internalNodes>
      <leafValues>
        -7.8267604112625122e-01 2.5012867525219917e-02</leafValues></_>
    <_>
      <internalNodes>
        0 -1 149485 -2.7619328349828720e-02</internalNodes>
      <leafValues>
        3.9404335618019104e-01 -6.6681034862995148e-02</leafValues></_>
    <_>
      <internalNodes>
        0 -1 30584 -8.8736107572913170e-03</internalNodes>
      <leafValues>
        3.3092880249023438e-01 -6.0442071408033371e-02</leafValues></_>
    <_>
      <internalNodes>
        0 -1 23337 -3.2776542007923126e-02</internalNodes>
      <leafValues>
        -3.3346542716026306e-01 6.0984652489423752e-02</leafValues></_>
    <_>
      <internalNodes>
        0 -1 140195 2.0768463611602783e-02</internalNodes>
      <leafValues>
        -1.1703806370496750e-01 1.8126225471496582e-01</leafValues></_>
    <_>
      <internalNodes>
        0 -1 148870 -2.4637847673147917e-04</internalNodes>
      <leafValues>
        -2.0579814910888672e-01 1.1940089613199234e-01</leafValues></_>
    <_>
      <internalNodes>
        0 -1 20048 -1.5791639685630798e-01</internalNodes>
      <leafValues>
        5.0006932020187378e-01 -4.8960093408823013e-02</leafValues></_>
    <_>
      <internalNodes>
        0 -1 849 -4.3627196550369263e-01</internalNodes>
      <leafValues>
        -6.3892227411270142e-01 3.8442660123109818e-02</leafValues></_>
    <_>
      <internalNodes>
        0 -1 118249 -4.6619134081993252e-05</internalNodes>
      <leafValues>
        1.1986656486988068e-01 -1.8370652198791504e-01</leafValues></_>
    <_>
      <internalNodes>
        0 -1 84843 4.4114300981163979e-03</internalNodes>
      <leafValues>
        -9.7612664103507996e-02 2.6003944873809814e-01</leafValues></_>
    <_>
      <internalNodes>
        0 -1 159595 -6.3418387435376644e-04</internalNodes>
      <leafValues>
        3.2939559221267700e-01 -6.9484286010265350e-02</leafValues></_>
    <_>
      <internalNodes>
        0 -1 151321 1.1281581828370690e-03</internalNodes>
      <leafValues>
        6.1219036579132080e-02 -4.1286396980285645e-01</leafValues></_>
    <_>
      <internalNodes>
        0 -1 82429 -4.7788172960281372e-03</internalNodes>
      <leafValues>
        2.5236558914184570e-01 -8.8006451725959778e-02</leafValues></_>
    <_>
      <internalNodes>
        0 -1 141401 1.1069679632782936e-02</internalNodes>
      <leafValues>
        -4.0628172457218170e-02 5.0299233198165894e-01</leafValues></_>
    <_>
      <internalNodes>
        0 -1 149881 -1.8796920776367188e-03</internalNodes>
      <leafValues>
        2.5518739223480225e-01 -8.0647364258766174e-02</leafValues></_>
    <_>
      <internalNodes>
        0 -1 135430 -7.9499353887513280e-04</internalNodes>
      <leafValues>
        -4.9318492412567139e-01 4.5101348310709000e-02</leafValues></_>
    <_>
      <internalNodes>
        0 -1 106581 -7.6423701830208302e-04</internalNodes>
      <leafValues>
        1.5116107463836670e-01 -1.4534850418567657e-01</leafValues></_>
    <_>
      <internalNodes>
        0 -1 4998 -3.3498923294246197e-03</internalNodes>
      <leafValues>
        4.1860768198966980e-01 -5.4035209119319916e-02</leafValues></_>
    <_>
      <internalNodes>
        0 -1 117200 2.8297819197177887e-02</internalNodes>
      <leafValues>
        3.8792718201875687e-02 -6.2959611415863037e-01</leafValues></_>
    <_>
      <internalNodes>
        0 -1 155105 1.9400193123146892e-03</internalNodes>
      <leafValues>
        -1.0889539122581482e-01 1.9727811217308044e-01</leafValues></_>
    <_>
      <internalNodes>
        0 -1 134517 8.7542980909347534e-02</internalNodes>
      <leafValues>
        -3.0585080385208130e-02 6.6374260187149048e-01</leafValues></_>
    <_>
      <internalNodes>
        0 -1 141027 7.8673462849110365e-04</internalNodes>
      <leafValues>
        4.7652944922447205e-02 -4.8897784948348999e-01</leafValues></_>
    <_>
      <internalNodes>
        0 -1 157578 -3.2635321840643883e-03</internalNodes>
      <leafValues>
        5.2168816328048706e-01 -4.1223652660846710e-02</leafValues></_>
    <_>
      <internalNodes>
        0 -1 98733 -2.9799020849168301e-03</internalNodes>
      <leafValues>
        5.5066144466400146e-01 -3.5174168646335602e-02</leafValues></_>
    <_>
      <internalNodes>
        0 -1 98469 -5.0016501918435097e-03</internalNodes>
      <leafValues>
        -4.6160158514976501e-01 4.9670036882162094e-02</leafValues></_>
    <_>
      <internalNodes>
        0 -1 80734 9.5342779532074928e-03</internalNodes>
      <leafValues>
        -5.0621438771486282e-02 5.0066822767257690e-01</leafValues></_>
    <_>
      <internalNodes>
        0 -1 4084 -1.3161756214685738e-04</internalNodes>
      <leafValues>
        -2.4029485881328583e-01 8.8917054235935211e-02</leafValues></_>
    <_>
      <internalNodes>
        0 -1 20712 -2.0184549503028393e-03</internalNodes>
      <leafValues>
        1.4618937671184540e-01 -1.4577600359916687e-01</leafValues></_>
    <_>
      <internalNodes>
        0 -1 140677 -1.0155391693115234e-01</internalNodes>
      <leafValues>
        -3.1616240739822388e-01 6.4904019236564636e-02</leafValues></_>
    <_>
      <internalNodes>
        0 -1 117687 -8.5134319961071014e-03</internalNodes>
      <leafValues>
        2.2891195118427277e-01 -1.1510866135358810e-01</leafValues></_>
    <_>
      <internalNodes>
        0 -1 124901 3.0103083699941635e-03</internalNodes>
      <leafValues>
        -1.1269058287143707e-01 1.9293864071369171e-01</leafValues></_>
    <_>
      <internalNodes>
        0 -1 116038 3.3493185765109956e-04</internalNodes>
      <leafValues>
        7.6991349458694458e-02 -3.0071607232093811e-01</leafValues></_>
    <_>
      <internalNodes>
        0 -1 132540 -3.5812534042634070e-04</internalNodes>
      <leafValues>
        1.0852687060832977e-01 -2.1234156191349030e-01</leafValues></_>
    <_>
      <internalNodes>
        0 -1 13353 8.5465172305703163e-03</internalNodes>
      <leafValues>
        -4.7407627105712891e-02 4.9154493212699890e-01</leafValues></_>
    <_>
      <internalNodes>
        0 -1 87739 -5.7027908042073250e-03</internalNodes>
      <leafValues>
        -5.7476842403411865e-01 4.0753763169050217e-02</leafValues></_>
    <_>
      <internalNodes>
        0 -1 10830 -1.7601065337657928e-01</internalNodes>
      <leafValues>
        -7.7006626129150391e-01 2.6207344606518745e-02</leafValues></_>
    <_>
      <internalNodes>
        0 -1 130531 -4.5114036765880883e-05</internalNodes>
      <leafValues>
        1.4447779953479767e-01 -1.3856980204582214e-01</leafValues></_>
    <_>
      <internalNodes>
        0 -1 114712 5.8518812060356140e-02</internalNodes>
      <leafValues>
        -7.1855351328849792e-02 3.0515593290328979e-01</leafValues></_>
    <_>
      <internalNodes>
        0 -1 103450 -6.6284194588661194e-02</internalNodes>
      <leafValues>
        -3.7235957384109497e-01 6.0011129826307297e-02</leafValues></_>
    <_>
      <internalNodes>
        0 -1 5896 -1.5588162932544947e-04</internalNodes>
      <leafValues>
        -1.9663503766059875e-01 1.1106440424919128e-01</leafValues></_>
    <_>
      <internalNodes>
        0 -1 159156 3.8498961366713047e-03</internalNodes>
      <leafValues>
        -1.0675574094057083e-01 2.1715797483921051e-01</leafValues></_>
    <_>
      <internalNodes>
        0 -1 161838 -3.8026311813155189e-05</internalNodes>
      <leafValues>
        1.7455181479454041e-01 -1.3810519874095917e-01</leafValues></_></weakClassifiers></stage13>
</opencv_storage>
