<?xml version="1.0"?>
<opencv_storage>
<stage3>
  <maxWeakCount>29</maxWeakCount>
  <stageThreshold>-1.2044662237167358e+00</stageThreshold>
  <weakClassifiers>
    <_>
      <internalNodes>
        0 -1 161499 5.4599847644567490e-03</internalNodes>
      <leafValues>
        -4.8209366202354431e-01 6.0827251523733139e-02</leafValues></_>
    <_>
      <internalNodes>
        0 -1 37297 -7.5296729803085327e-02</internalNodes>
      <leafValues>
        -6.7390161752700806e-01 9.3666151165962219e-02</leafValues></_>
    <_>
      <internalNodes>
        0 -1 71404 1.8159601604565978e-03</internalNodes>
      <leafValues>
        -1.9297370314598083e-01 3.1927174329757690e-01</leafValues></_>
    <_>
      <internalNodes>
        0 -1 16295 1.8473325669765472e-01</internalNodes>
      <leafValues>
        5.1455125212669373e-02 -6.8797373771667480e-01</leafValues></_>
    <_>
      <internalNodes>
        0 -1 76245 -3.0866259336471558e-01</internalNodes>
      <leafValues>
        -8.3102566003799438e-01 7.7505439519882202e-02</leafValues></_>
    <_>
      <internalNodes>
        0 -1 5884 -1.2383936904370785e-02</internalNodes>
      <leafValues>
        7.0891726016998291e-01 -8.2823224365711212e-02</leafValues></_>
    <_>
      <internalNodes>
        0 -1 25415 -8.1401988863945007e-03</internalNodes>
      <leafValues>
        -5.5245417356491089e-01 7.7277503907680511e-02</leafValues></_>
    <_>
      <internalNodes>
        0 -1 23610 5.4384708404541016e-02</internalNodes>
      <leafValues>
        9.1726712882518768e-02 -4.5810741186141968e-01</leafValues></_>
    <_>
      <internalNodes>
        0 -1 159130 -4.5833652839064598e-03</internalNodes>
      <leafValues>
        5.5710661411285400e-01 -8.2795917987823486e-02</leafValues></_>
    <_>
      <internalNodes>
        0 -1 161888 -2.2212071344256401e-03</internalNodes>
      <leafValues>
        3.7206676602363586e-01 -1.1593364179134369e-01</leafValues></_>
    <_>
      <internalNodes>
        0 -1 155220 1.3993581524118781e-03</internalNodes>
      <leafValues>
        -1.5757915377616882e-01 2.8527763485908508e-01</leafValues></_>
    <_>
      <internalNodes>
        0 -1 161948 -1.8745132256299257e-03</internalNodes>
      <leafValues>
        4.3620598316192627e-01 -9.6993058919906616e-02</leafValues></_>
    <_>
      <internalNodes>
        0 -1 48139 -2.5409441441297531e-02</internalNodes>
      <leafValues>
        -5.4597383737564087e-01 7.1775428950786591e-02</leafValues></_>
    <_>
      <internalNodes>
        0 -1 133940 3.5421375185251236e-02</internalNodes>
      <leafValues>
        -6.3903152942657471e-02 6.5119016170501709e-01</leafValues></_>
    <_>
      <internalNodes>
        0 -1 126564 2.0171194337308407e-03</internalNodes>
      <leafValues>
        9.0026013553142548e-02 -4.4654253125190735e-01</leafValues></_>
    <_>
      <internalNodes>
        0 -1 19346 3.4323306754231453e-03</internalNodes>
      <leafValues>
        7.1734622120857239e-02 -4.1160961985588074e-01</leafValues></_>
    <_>
      <internalNodes>
        0 -1 106471 -1.1400380171835423e-03</internalNodes>
      <leafValues>
        2.0209023356437683e-01 -1.7545600235462189e-01</leafValues></_>
    <_>
      <internalNodes>
        0 -1 25564 -6.8790435791015625e-02</internalNodes>
      <leafValues>
        -6.3723111152648926e-01 7.3987342417240143e-02</leafValues></_>
    <_>
      <internalNodes>
        0 -1 40734 -1.4906469732522964e-02</internalNodes>
      <leafValues>
        8.1775838136672974e-01 -5.0703473389148712e-02</leafValues></_>
    <_>
      <internalNodes>
        0 -1 37240 1.6729434719309211e-03</internalNodes>
      <leafValues>
        -1.3361707329750061e-01 2.4691164493560791e-01</leafValues></_>
    <_>
      <internalNodes>
        0 -1 104919 -2.1678566932678223e-01</internalNodes>
      <leafValues>
        -3.6877921223640442e-01 1.0688832402229309e-01</leafValues></_>
    <_>
      <internalNodes>
        0 -1 119345 -5.6393968407064676e-04</internalNodes>
      <leafValues>
        2.4233874678611755e-01 -1.7912088334560394e-01</leafValues></_>
    <_>
      <internalNodes>
        0 -1 156924 -1.3244670117273927e-04</internalNodes>
      <leafValues>
        1.3424128293991089e-01 -2.5108882784843445e-01</leafValues></_>
    <_>
      <internalNodes>
        0 -1 107387 -4.0811282396316528e-01</internalNodes>
      <leafValues>
        -5.5779117345809937e-01 6.0006946325302124e-02</leafValues></_>
    <_>
      <internalNodes>
        0 -1 80940 7.2078267112374306e-03</internalNodes>
      <leafValues>
        -1.4556053280830383e-01 2.3383951187133789e-01</leafValues></_>
    <_>
      <internalNodes>
        0 -1 122755 1.1814335361123085e-02</internalNodes>
      <leafValues>
        -1.0970786213874817e-01 3.2435193657875061e-01</leafValues></_>
    <_>
      <internalNodes>
        0 -1 88709 -3.7811961956322193e-03</internalNodes>
      <leafValues>
        1.7488859593868256e-01 -1.9164015352725983e-01</leafValues></_>
    <_>
      <internalNodes>
        0 -1 72775 -4.9757458269596100e-02</internalNodes>
      <leafValues>
        2.2964419424533844e-01 -1.7017287015914917e-01</leafValues></_>
    <_>
      <internalNodes>
        0 -1 154799 -6.7003583535552025e-03</internalNodes>
      <leafValues>
        4.1198411583900452e-01 -1.0318976640701294e-01</leafValues></_></weakClassifiers></stage3>
</opencv_storage>
