<?xml version="1.0"?>
<opencv_storage>
<stage15>
  <maxWeakCount>60</maxWeakCount>
  <stageThreshold>-9.8850339651107788e-01</stageThreshold>
  <weakClassifiers>
    <_>
      <internalNodes>
        0 -1 38224 5.3924070671200752e-03</internalNodes>
      <leafValues>
        -3.7704917788505554e-01 3.7974681705236435e-02</leafValues></_>
    <_>
      <internalNodes>
        0 -1 125423 -3.3500380814075470e-03</internalNodes>
      <leafValues>
        2.2366230189800262e-01 -9.1845043003559113e-02</leafValues></_>
    <_>
      <internalNodes>
        0 -1 86165 3.3035604283213615e-03</internalNodes>
      <leafValues>
        4.8404235392808914e-02 -4.2729642987251282e-01</leafValues></_>
    <_>
      <internalNodes>
        0 -1 124336 2.8155611362308264e-03</internalNodes>
      <leafValues>
        -5.3789075464010239e-02 4.0541031956672668e-01</leafValues></_>
    <_>
      <internalNodes>
        0 -1 111818 -1.5369546599686146e-03</internalNodes>
      <leafValues>
        2.9903596639633179e-01 -7.4385263025760651e-02</leafValues></_>
    <_>
      <internalNodes>
        0 -1 124707 -8.5851736366748810e-03</internalNodes>
      <leafValues>
        -8.0187100172042847e-01 1.4029672369360924e-02</leafValues></_>
    <_>
      <internalNodes>
        0 -1 160589 -3.8574135396629572e-04</internalNodes>
      <leafValues>
        -1.8134227395057678e-01 1.1427059769630432e-01</leafValues></_>
    <_>
      <internalNodes>
        0 -1 78493 -2.4920704308897257e-03</internalNodes>
      <leafValues>
        -2.4979332089424133e-01 6.3512779772281647e-02</leafValues></_>
    <_>
      <internalNodes>
        0 -1 50501 -3.9199724793434143e-02</internalNodes>
      <leafValues>
        -6.0270899534225464e-01 4.6295516192913055e-02</leafValues></_>
    <_>
      <internalNodes>
        0 -1 80826 -8.0995326861739159e-03</internalNodes>
      <leafValues>
        4.0677306056022644e-01 -4.6595450490713120e-02</leafValues></_>
    <_>
      <internalNodes>
        0 -1 131004 -6.5980935469269753e-03</internalNodes>
      <leafValues>
        3.5339501500129700e-01 -5.8544527739286423e-02</leafValues></_>
    <_>
      <internalNodes>
        0 -1 110856 -2.3394349962472916e-02</internalNodes>
      <leafValues>
        -4.0064018964767456e-01 5.0021763890981674e-02</leafValues></_>
    <_>
      <internalNodes>
        0 -1 40959 -1.9280187785625458e-02</internalNodes>
      <leafValues>
        2.7420204877853394e-01 -6.9187119603157043e-02</leafValues></_>
    <_>
      <internalNodes>
        0 -1 94712 2.6965694269165397e-04</internalNodes>
      <leafValues>
        7.1219630539417267e-02 -2.8534513711929321e-01</leafValues></_>
    <_>
      <internalNodes>
        0 -1 139251 -2.5002355687320232e-03</internalNodes>
      <leafValues>
        -2.9533681273460388e-01 7.4243359267711639e-02</leafValues></_>
    <_>
      <internalNodes>
        0 -1 111955 -8.5763093084096909e-03</internalNodes>
      <leafValues>
        3.2856330275535583e-01 -7.1199908852577209e-02</leafValues></_>
    <_>
      <internalNodes>
        0 -1 98977 3.9482161402702332e-02</internalNodes>
      <leafValues>
        2.6910606771707535e-02 -7.9887264966964722e-01</leafValues></_>
    <_>
      <internalNodes>
        0 -1 121667 1.1752190999686718e-02</internalNodes>
      <leafValues>
        -3.2353054732084274e-02 7.3757290840148926e-01</leafValues></_>
    <_>
      <internalNodes>
        0 -1 146283 -3.5746884532272816e-03</internalNodes>
      <leafValues>
        1.9045266509056091e-01 -1.0597550868988037e-01</leafValues></_>
    <_>
      <internalNodes>
        0 -1 87476 1.1525247246026993e-03</internalNodes>
      <leafValues>
        6.4640618860721588e-02 -2.9923787713050842e-01</leafValues></_>
    <_>
      <internalNodes>
        0 -1 7747 7.4358895421028137e-02</internalNodes>
      <leafValues>
        -2.4820214137434959e-02 9.4301235675811768e-01</leafValues></_>
    <_>
      <internalNodes>
        0 -1 150090 -2.9967390000820160e-03</internalNodes>
      <leafValues>
        3.7291452288627625e-01 -4.7796823084354401e-02</leafValues></_>
    <_>
      <internalNodes>
        0 -1 96942 -8.7469685822725296e-03</internalNodes>
      <leafValues>
        1.3402576744556427e-01 -1.4948403835296631e-01</leafValues></_>
    <_>
      <internalNodes>
        0 -1 89255 4.1894852183759212e-03</internalNodes>
      <leafValues>
        -3.5036224871873856e-02 5.7820147275924683e-01</leafValues></_>
    <_>
      <internalNodes>
        0 -1 78525 2.2808294743299484e-02</internalNodes>
      <leafValues>
        -3.4868068993091583e-02 5.6011497974395752e-01</leafValues></_>
    <_>
      <internalNodes>
        0 -1 82124 -4.4653469324111938e-01</internalNodes>
      <leafValues>
        4.5009691268205643e-02 -4.8398080468177795e-01</leafValues></_>
    <_>
      <internalNodes>
        0 -1 133428 -5.3719449788331985e-02</internalNodes>
      <leafValues>
        -8.5757970809936523e-02 3.7367635965347290e-01</leafValues></_>
    <_>
      <internalNodes>
        0 -1 71050 2.4754729121923447e-02</internalNodes>
      <leafValues>
        -6.9223538041114807e-02 3.2817375659942627e-01</leafValues></_>
    <_>
      <internalNodes>
        0 -1 9707 -8.8487297762185335e-04</internalNodes>
      <leafValues>
        -1.4259098470211029e-01 1.5462447702884674e-01</leafValues></_>
    <_>
      <internalNodes>
        0 -1 139237 2.1739630028605461e-03</internalNodes>
      <leafValues>
        -4.8268903046846390e-02 4.5015835762023926e-01</leafValues></_>
    <_>
      <internalNodes>
        0 -1 160141 5.3409498650580645e-04</internalNodes>
      <leafValues>
        9.9150188267230988e-02 -2.4541994929313660e-01</leafValues></_>
    <_>
      <internalNodes>
        0 -1 151495 4.6195210888981819e-03</internalNodes>
      <leafValues>
        -3.2788924872875214e-02 6.6002267599105835e-01</leafValues></_>
    <_>
      <internalNodes>
        0 -1 147650 4.5434739440679550e-03</internalNodes>
      <leafValues>
        -1.1444891244173050e-01 1.7431601881980896e-01</leafValues></_>
    <_>
      <internalNodes>
        0 -1 26758 9.6121057868003845e-02</internalNodes>
      <leafValues>
        -7.0608101785182953e-02 3.0246359109878540e-01</leafValues></_>
    <_>
      <internalNodes>
        0 -1 92515 -5.5513926781713963e-05</internalNodes>
      <leafValues>
        1.4585787057876587e-01 -1.7669713497161865e-01</leafValues></_>
    <_>
      <internalNodes>
        0 -1 66764 -2.0376175642013550e-02</internalNodes>
      <leafValues>
        4.4768893718719482e-01 -4.9792494624853134e-02</leafValues></_>
    <_>
      <internalNodes>
        0 -1 60283 2.7499631978571415e-03</internalNodes>
      <leafValues>
        -9.8880283534526825e-02 2.2564291954040527e-01</leafValues></_>
    <_>
      <internalNodes>
        0 -1 143830 7.1151391603052616e-04</internalNodes>
      <leafValues>
        4.3115168809890747e-02 -4.4448482990264893e-01</leafValues></_>
    <_>
      <internalNodes>
        0 -1 51592 -2.7745640836656094e-03</internalNodes>
      <leafValues>
        1.7032893002033234e-01 -1.2783114612102509e-01</leafValues></_>
    <_>
      <internalNodes>
        0 -1 124134 -1.1663690209388733e-02</internalNodes>
      <leafValues>
        -3.9628735184669495e-01 4.8643209040164948e-02</leafValues></_>
    <_>
      <internalNodes>
        0 -1 122145 -2.1482354030013084e-02</internalNodes>
      <leafValues>
        3.0935508012771606e-01 -6.9229580461978912e-02</leafValues></_>
    <_>
      <internalNodes>
        0 -1 115101 -2.8620371595025063e-02</internalNodes>
      <leafValues>
        -5.6470692157745361e-01 3.6522515118122101e-02</leafValues></_>
    <_>
      <internalNodes>
        0 -1 154146 6.2049506232142448e-03</internalNodes>
      <leafValues>
        -7.6177708804607391e-02 2.7513825893402100e-01</leafValues></_>
    <_>
      <internalNodes>
        0 -1 154277 1.5459251590073109e-03</internalNodes>
      <leafValues>
        1.1469576507806778e-01 -1.9259518384933472e-01</leafValues></_>
    <_>
      <internalNodes>
        0 -1 136722 1.1818228662014008e-01</internalNodes>
      <leafValues>
        -7.5278095901012421e-02 3.0013591051101685e-01</leafValues></_>
    <_>
      <internalNodes>
        0 -1 79396 3.1920983456075191e-03</internalNodes>
      <leafValues>
        -8.5073277354240417e-02 2.6672273874282837e-01</leafValues></_>
    <_>
      <internalNodes>
        0 -1 127145 -2.3216675617732108e-04</internalNodes>
      <leafValues>
        1.3870112597942352e-01 -1.6796424984931946e-01</leafValues></_>
    <_>
      <internalNodes>
        0 -1 154825 -1.6866590827703476e-02</internalNodes>
      <leafValues>
        3.3672106266021729e-01 -6.1925474554300308e-02</leafValues></_>
    <_>
      <internalNodes>
        0 -1 147348 -1.2280477210879326e-02</internalNodes>
      <leafValues>
        -2.2474803030490875e-01 9.2118762433528900e-02</leafValues></_>
    <_>
      <internalNodes>
        0 -1 139256 2.1269801072776318e-03</internalNodes>
      <leafValues>
        5.5055882781744003e-02 -3.3897960186004639e-01</leafValues></_>
    <_>
      <internalNodes>
        0 -1 15185 1.8811654299497604e-02</internalNodes>
      <leafValues>
        2.7052924036979675e-02 -6.6662317514419556e-01</leafValues></_>
    <_>
      <internalNodes>
        0 -1 143656 1.2713113799691200e-02</internalNodes>
      <leafValues>
        -3.4798901528120041e-02 5.9637677669525146e-01</leafValues></_>
    <_>
      <internalNodes>
        0 -1 143685 1.8400292843580246e-02</internalNodes>
      <leafValues>
        8.1736177206039429e-02 -2.4669431149959564e-01</leafValues></_>
    <_>
      <internalNodes>
        0 -1 38058 -8.4804848302155733e-04</internalNodes>
      <leafValues>
        1.5546452999114990e-01 -1.3688312470912933e-01</leafValues></_>
    <_>
      <internalNodes>
        0 -1 6673 -8.3361249417066574e-03</internalNodes>
      <leafValues>
        -4.1323304176330566e-02 5.6764447689056396e-01</leafValues></_>
    <_>
      <internalNodes>
        0 -1 152507 -6.9030828773975372e-02</internalNodes>
      <leafValues>
        1.7872489988803864e-01 -1.3991281390190125e-01</leafValues></_>
    <_>
      <internalNodes>
        0 -1 89577 1.6669142059981823e-03</internalNodes>
      <leafValues>
        -4.5383442193269730e-02 4.1615292429924011e-01</leafValues></_>
    <_>
      <internalNodes>
        0 -1 26616 8.3621591329574585e-02</internalNodes>
      <leafValues>
        -5.0339840352535248e-02 3.8476666808128357e-01</leafValues></_>
    <_>
      <internalNodes>
        0 -1 82882 7.3050076025538146e-05</internalNodes>
      <leafValues>
        1.0313086211681366e-01 -2.0452986657619476e-01</leafValues></_>
    <_>
      <internalNodes>
        0 -1 48818 -1.6030631959438324e-02</internalNodes>
      <leafValues>
        -4.3352026492357254e-02 4.8207688331604004e-01</leafValues></_></weakClassifiers></stage15>
</opencv_storage>
