<?xml version="1.0"?>
<opencv_storage>
<stage9>
  <maxWeakCount>38</maxWeakCount>
  <stageThreshold>-9.3457281589508057e-01</stageThreshold>
  <weakClassifiers>
    <_>
      <internalNodes>
        0 -1 61264 1.2022539973258972e-02</internalNodes>
      <leafValues>
        -4.1147541999816895e-01 7.1428571827709675e-03</leafValues></_>
    <_>
      <internalNodes>
        0 -1 161611 1.1147214099764824e-02</internalNodes>
      <leafValues>
        -5.3707301616668701e-02 6.8902820348739624e-01</leafValues></_>
    <_>
      <internalNodes>
        0 -1 121006 3.2142414711415768e-03</internalNodes>
      <leafValues>
        4.9079507589340210e-02 -4.7807905077934265e-01</leafValues></_>
    <_>
      <internalNodes>
        0 -1 127703 3.1616981141269207e-03</internalNodes>
      <leafValues>
        -3.7879692390561104e-03 9.0082085132598877e-01</leafValues></_>
    <_>
      <internalNodes>
        0 -1 127703 3.1861215829849243e-03</internalNodes>
      <leafValues>
        5.5117369629442692e-04 -7.3869282007217407e-01</leafValues></_>
    <_>
      <internalNodes>
        0 -1 4100 4.3678921647369862e-03</internalNodes>
      <leafValues>
        -2.8944587334990501e-02 4.7287440299987793e-01</leafValues></_>
    <_>
      <internalNodes>
        0 -1 14200 -5.5571831762790680e-02</internalNodes>
      <leafValues>
        4.6810159087181091e-01 -6.8262159824371338e-02</leafValues></_>
    <_>
      <internalNodes>
        0 -1 160366 -1.8696437473408878e-04</internalNodes>
      <leafValues>
        -2.2212599217891693e-01 1.2385071814060211e-01</leafValues></_>
    <_>
      <internalNodes>
        0 -1 161675 -1.2190415523946285e-02</internalNodes>
      <leafValues>
        4.9035620689392090e-01 -4.5427132397890091e-02</leafValues></_>
    <_>
      <internalNodes>
        0 -1 89451 6.7967977374792099e-03</internalNodes>
      <leafValues>
        -4.0699124336242676e-02 5.5548167228698730e-01</leafValues></_>
    <_>
      <internalNodes>
        0 -1 1109 3.2975117210298777e-04</internalNodes>
      <leafValues>
        9.9109366536140442e-02 -2.2684410214424133e-01</leafValues></_>
    <_>
      <internalNodes>
        0 -1 2128 -1.6911656712181866e-04</internalNodes>
      <leafValues>
        -2.4960905313491821e-01 1.1984656751155853e-01</leafValues></_>
    <_>
      <internalNodes>
        0 -1 158395 1.1263036867603660e-04</internalNodes>
      <leafValues>
        1.2360989302396774e-01 -2.1060119569301605e-01</leafValues></_>
    <_>
      <internalNodes>
        0 -1 10582 4.3904106132686138e-03</internalNodes>
      <leafValues>
        -6.2241747975349426e-02 3.9814314246177673e-01</leafValues></_>
    <_>
      <internalNodes>
        0 -1 156733 7.8843683004379272e-03</internalNodes>
      <leafValues>
        -7.4219137430191040e-02 3.3847197890281677e-01</leafValues></_>
    <_>
      <internalNodes>
        0 -1 95778 9.9837314337491989e-03</internalNodes>
      <leafValues>
        -3.8741007447242737e-02 4.7902232408523560e-01</leafValues></_>
    <_>
      <internalNodes>
        0 -1 92203 8.2092024385929108e-02</internalNodes>
      <leafValues>
        3.3652767539024353e-02 -6.5521192550659180e-01</leafValues></_>
    <_>
      <internalNodes>
        0 -1 110236 -1.8728884169831872e-03</internalNodes>
      <leafValues>
        2.1937634050846100e-01 -1.1147373169660568e-01</leafValues></_>
    <_>
      <internalNodes>
        0 -1 53257 1.2603129446506500e-01</internalNodes>
      <leafValues>
        -1.0732964426279068e-01 2.7468413114547729e-01</leafValues></_>
    <_>
      <internalNodes>
        0 -1 134651 6.6062053665518761e-03</internalNodes>
      <leafValues>
        -4.5983053743839264e-02 5.2393269538879395e-01</leafValues></_>
    <_>
      <internalNodes>
        0 -1 76877 -1.0706819593906403e-02</internalNodes>
      <leafValues>
        5.3636366128921509e-01 -4.1627123951911926e-02</leafValues></_>
    <_>
      <internalNodes>
        0 -1 125911 -8.3582978695631027e-03</internalNodes>
      <leafValues>
        1.1507594585418701e-01 -2.0553617179393768e-01</leafValues></_>
    <_>
      <internalNodes>
        0 -1 113115 -5.5123167112469673e-03</internalNodes>
      <leafValues>
        3.2552105188369751e-01 -7.1888029575347900e-02</leafValues></_>
    <_>
      <internalNodes>
        0 -1 12464 -1.3216961920261383e-01</internalNodes>
      <leafValues>
        -4.7917827963829041e-01 5.1187418401241302e-02</leafValues></_>
    <_>
      <internalNodes>
        0 -1 143026 2.2996353800408542e-04</internalNodes>
      <leafValues>
        8.4755338728427887e-02 -2.8122523427009583e-01</leafValues></_>
    <_>
      <internalNodes>
        0 -1 121397 -3.7972822785377502e-02</internalNodes>
      <leafValues>
        -4.2684516310691833e-01 4.8952452838420868e-02</leafValues></_>
    <_>
      <internalNodes>
        0 -1 48485 -1.8534579430706799e-04</internalNodes>
      <leafValues>
        -2.6810476183891296e-01 9.2667624354362488e-02</leafValues></_>
    <_>
      <internalNodes>
        0 -1 37896 -1.2147213419666514e-04</internalNodes>
      <leafValues>
        -2.3066134750843048e-01 1.0303889214992523e-01</leafValues></_>
    <_>
      <internalNodes>
        0 -1 136207 -1.7336697783321142e-04</internalNodes>
      <leafValues>
        1.7537361383438110e-01 -1.3506995141506195e-01</leafValues></_>
    <_>
      <internalNodes>
        0 -1 72646 6.1265125870704651e-02</internalNodes>
      <leafValues>
        6.1292525380849838e-02 -4.2025086283683777e-01</leafValues></_>
    <_>
      <internalNodes>
        0 -1 114653 -4.6238573268055916e-03</internalNodes>
      <leafValues>
        5.8412504196166992e-01 -5.0664141774177551e-02</leafValues></_>
    <_>
      <internalNodes>
        0 -1 14278 2.2023916244506836e-02</internalNodes>
      <leafValues>
        -1.1160346120595932e-01 2.5517961382865906e-01</leafValues></_>
    <_>
      <internalNodes>
        0 -1 43699 1.5521874593105167e-04</internalNodes>
      <leafValues>
        9.9588960409164429e-02 -2.5577589869499207e-01</leafValues></_>
    <_>
      <internalNodes>
        0 -1 11513 1.1973774526268244e-03</internalNodes>
      <leafValues>
        -9.3774788081645966e-02 2.7310538291931152e-01</leafValues></_>
    <_>
      <internalNodes>
        0 -1 123388 -3.4721393603831530e-04</internalNodes>
      <leafValues>
        -3.3489185571670532e-01 7.5465559959411621e-02</leafValues></_>
    <_>
      <internalNodes>
        0 -1 146033 -6.5995235927402973e-03</internalNodes>
      <leafValues>
        2.2547276318073273e-01 -1.0596395283937454e-01</leafValues></_>
    <_>
      <internalNodes>
        0 -1 148908 3.6753634922206402e-03</internalNodes>
      <leafValues>
        -1.0217712074518204e-01 2.5567823648452759e-01</leafValues></_>
    <_>
      <internalNodes>
        0 -1 156505 2.2925103548914194e-03</internalNodes>
      <leafValues>
        4.8664815723896027e-02 -5.6362706422805786e-01</leafValues></_></weakClassifiers></stage9>
</opencv_storage>
