<?xml version="1.0"?>
<opencv_storage>
<stage18>
  <maxWeakCount>57</maxWeakCount>
  <stageThreshold>-8.6153632402420044e-01</stageThreshold>
  <weakClassifiers>
    <_>
      <internalNodes>
        0 -1 70663 -1.4204600825905800e-02</internalNodes>
      <leafValues>
        -3.7761193513870239e-01 3.7500001490116119e-02</leafValues></_>
    <_>
      <internalNodes>
        0 -1 121243 -5.6649814359843731e-04</internalNodes>
      <leafValues>
        1.7775033414363861e-01 -1.0618405044078827e-01</leafValues></_>
    <_>
      <internalNodes>
        0 -1 106964 3.3184757921844721e-03</internalNodes>
      <leafValues>
        -5.7066254317760468e-02 3.0773305892944336e-01</leafValues></_>
    <_>
      <internalNodes>
        0 -1 22524 -5.0237858667969704e-03</internalNodes>
      <leafValues>
        -2.8962007164955139e-01 6.0883335769176483e-02</leafValues></_>
    <_>
      <internalNodes>
        0 -1 46378 -1.4663910260424018e-03</internalNodes>
      <leafValues>
        2.5556805729866028e-01 -8.0127112567424774e-02</leafValues></_>
    <_>
      <internalNodes>
        0 -1 162095 -2.5467880186624825e-04</internalNodes>
      <leafValues>
        -2.1731153130531311e-01 9.2582032084465027e-02</leafValues></_>
    <_>
      <internalNodes>
        0 -1 145910 2.5401567108929157e-03</internalNodes>
      <leafValues>
        -9.6985325217247009e-02 2.7847659587860107e-01</leafValues></_>
    <_>
      <internalNodes>
        0 -1 109126 -1.2020382564514875e-03</internalNodes>
      <leafValues>
        2.3320202529430389e-01 -8.3959452807903290e-02</leafValues></_>
    <_>
      <internalNodes>
        0 -1 34681 -4.9716196954250336e-03</internalNodes>
      <leafValues>
        -4.4617414474487305e-01 3.2841641455888748e-02</leafValues></_>
    <_>
      <internalNodes>
        0 -1 63715 8.6104460060596466e-03</internalNodes>
      <leafValues>
        -5.7225383818149567e-02 3.3300092816352844e-01</leafValues></_>
    <_>
      <internalNodes>
        0 -1 49797 -3.9239332545548677e-04</internalNodes>
      <leafValues>
        -1.8897806107997894e-01 9.7737476229667664e-02</leafValues></_>
    <_>
      <internalNodes>
        0 -1 63621 1.0855008848011494e-02</internalNodes>
      <leafValues>
        2.5549322366714478e-02 -6.5937507152557373e-01</leafValues></_>
    <_>
      <internalNodes>
        0 -1 3166 7.0544326445087790e-04</internalNodes>
      <leafValues>
        -1.0097181051969528e-01 1.9090922176837921e-01</leafValues></_>
    <_>
      <internalNodes>
        0 -1 21279 -2.4673447478562593e-04</internalNodes>
      <leafValues>
        1.1318430304527283e-01 -2.0110817253589630e-01</leafValues></_>
    <_>
      <internalNodes>
        0 -1 64349 -3.3679357729852200e-03</internalNodes>
      <leafValues>
        2.0827351510524750e-01 -1.1082604527473450e-01</leafValues></_>
    <_>
      <internalNodes>
        0 -1 57252 2.7688881382346153e-03</internalNodes>
      <leafValues>
        -1.0494363307952881e-01 2.5193259119987488e-01</leafValues></_>
    <_>
      <internalNodes>
        0 -1 162100 -3.7153490120545030e-04</internalNodes>
      <leafValues>
        -2.8469747304916382e-01 7.0946730673313141e-02</leafValues></_>
    <_>
      <internalNodes>
        0 -1 47901 -3.9141182787716389e-03</internalNodes>
      <leafValues>
        -5.9124588966369629e-01 3.1599950045347214e-02</leafValues></_>
    <_>
      <internalNodes>
        0 -1 162100 7.7457647421397269e-05</internalNodes>
      <leafValues>
        9.3103028833866119e-02 -1.8670962750911713e-01</leafValues></_>
    <_>
      <internalNodes>
        0 -1 144259 7.4805240146815777e-03</internalNodes>
      <leafValues>
        -6.0236852616071701e-02 2.9560527205467224e-01</leafValues></_>
    <_>
      <internalNodes>
        0 -1 93258 -5.3328229114413261e-03</internalNodes>
      <leafValues>
        1.8121100962162018e-01 -1.1412423849105835e-01</leafValues></_>
    <_>
      <internalNodes>
        0 -1 22830 4.1162907145917416e-03</internalNodes>
      <leafValues>
        8.6820974946022034e-02 -2.1561564505100250e-01</leafValues></_>
    <_>
      <internalNodes>
        0 -1 22870 -6.1141848564147949e-03</internalNodes>
      <leafValues>
        -2.3993028700351715e-01 8.2060955464839935e-02</leafValues></_>
    <_>
      <internalNodes>
        0 -1 56464 -1.9010894000530243e-02</internalNodes>
      <leafValues>
        4.0807715058326721e-01 -4.5339673757553101e-02</leafValues></_>
    <_>
      <internalNodes>
        0 -1 117865 -6.5544398967176676e-04</internalNodes>
      <leafValues>
        -4.1483172774314880e-01 4.5957431197166443e-02</leafValues></_>
    <_>
      <internalNodes>
        0 -1 96529 -1.7482344992458820e-03</internalNodes>
      <leafValues>
        1.3539654016494751e-01 -1.3760234415531158e-01</leafValues></_>
    <_>
      <internalNodes>
        0 -1 99359 1.0528956539928913e-02</internalNodes>
      <leafValues>
        1.5223985537886620e-02 -1.</leafValues></_>
    <_>
      <internalNodes>
        0 -1 106743 -1.3186677824705839e-03</internalNodes>
      <leafValues>
        4.4197249412536621e-01 -4.8274140805006027e-02</leafValues></_>
    <_>
      <internalNodes>
        0 -1 81938 -7.6342774555087090e-03</internalNodes>
      <leafValues>
        -3.9902547001838684e-01 4.7668326646089554e-02</leafValues></_>
    <_>
      <internalNodes>
        0 -1 13965 2.0102422684431076e-02</internalNodes>
      <leafValues>
        -9.3099296092987061e-02 2.3750638961791992e-01</leafValues></_>
    <_>
      <internalNodes>
        0 -1 80776 -7.1269506588578224e-03</internalNodes>
      <leafValues>
        3.0194327235221863e-01 -7.1563161909580231e-02</leafValues></_>
    <_>
      <internalNodes>
        0 -1 3205 -3.5769221722148359e-04</internalNodes>
      <leafValues>
        -2.1139672398567200e-01 9.3374624848365784e-02</leafValues></_>
    <_>
      <internalNodes>
        0 -1 13486 -1.6505105420947075e-02</internalNodes>
      <leafValues>
        7.2748023271560669e-01 -2.8760617598891258e-02</leafValues></_>
    <_>
      <internalNodes>
        0 -1 160369 1.3502230285666883e-04</internalNodes>
      <leafValues>
        9.7212105989456177e-02 -2.1687602996826172e-01</leafValues></_>
    <_>
      <internalNodes>
        0 -1 161877 -3.5123901907354593e-03</internalNodes>
      <leafValues>
        6.1298382282257080e-01 -3.3736765384674072e-02</leafValues></_>
    <_>
      <internalNodes>
        0 -1 1177 -1.4353841543197632e-03</internalNodes>
      <leafValues>
        1.4754141867160797e-01 -1.3315613567829132e-01</leafValues></_>
    <_>
      <internalNodes>
        0 -1 1157 7.4320230633020401e-03</internalNodes>
      <leafValues>
        -6.2410466372966766e-02 3.6230567097663879e-01</leafValues></_>
    <_>
      <internalNodes>
        0 -1 148311 2.0633158273994923e-03</internalNodes>
      <leafValues>
        -1.0297310352325439e-01 1.9039775431156158e-01</leafValues></_>
    <_>
      <internalNodes>
        0 -1 38499 1.5484152734279633e-01</internalNodes>
      <leafValues>
        2.1942466497421265e-02 -7.5858610868453979e-01</leafValues></_>
    <_>
      <internalNodes>
        0 -1 161183 -1.9128125160932541e-02</internalNodes>
      <leafValues>
        -8.6804229021072388e-01 1.5941161662340164e-02</leafValues></_>
    <_>
      <internalNodes>
        0 -1 13794 -6.8917229771614075e-02</internalNodes>
      <leafValues>
        2.9660230875015259e-01 -7.7989049255847931e-02</leafValues></_>
    <_>
      <internalNodes>
        0 -1 110669 -1.3471034169197083e-01</internalNodes>
      <leafValues>
        -3.2699102163314819e-01 5.8432869613170624e-02</leafValues></_>
    <_>
      <internalNodes>
        0 -1 120791 -2.8363388031721115e-02</internalNodes>
      <leafValues>
        2.5885802507400513e-01 -8.4837026894092560e-02</leafValues></_>
    <_>
      <internalNodes>
        0 -1 121045 8.6424610344693065e-05</internalNodes>
      <leafValues>
        1.0277894139289856e-01 -1.9179144501686096e-01</leafValues></_>
    <_>
      <internalNodes>
        0 -1 153724 -7.0087924599647522e-02</internalNodes>
      <leafValues>
        -3.3310234546661377e-01 6.4259320497512817e-02</leafValues></_>
    <_>
      <internalNodes>
        0 -1 1063 -7.4880361557006836e-01</internalNodes>
      <leafValues>
        -7.6353085041046143e-01 2.5058215484023094e-02</leafValues></_>
    <_>
      <internalNodes>
        0 -1 78673 -6.2779821455478668e-03</internalNodes>
      <leafValues>
        2.2018956020474434e-02 -7.4006772041320801e-01</leafValues></_>
    <_>
      <internalNodes>
        0 -1 76326 -6.9546152371913195e-04</internalNodes>
      <leafValues>
        2.1612161397933960e-01 -9.4794437289237976e-02</leafValues></_>
    <_>
      <internalNodes>
        0 -1 98309 -5.6076750159263611e-02</internalNodes>
      <leafValues>
        -5.2339784801006317e-02 4.3430483341217041e-01</leafValues></_>
    <_>
      <internalNodes>
        0 -1 161047 -3.4288233146071434e-03</internalNodes>
      <leafValues>
        -7.7338248491287231e-01 3.2396674156188965e-02</leafValues></_>
    <_>
      <internalNodes>
        0 -1 161107 2.2328826598823071e-03</internalNodes>
      <leafValues>
        -1.1264708638191223e-01 1.8286333978176117e-01</leafValues></_>
    <_>
      <internalNodes>
        0 -1 159702 -2.9763308702968061e-04</internalNodes>
      <leafValues>
        -2.7725183963775635e-01 7.4456766247749329e-02</leafValues></_>
    <_>
      <internalNodes>
        0 -1 67739 -2.4129034951329231e-02</internalNodes>
      <leafValues>
        -6.8382501602172852e-01 2.7852889150381088e-02</leafValues></_>
    <_>
      <internalNodes>
        0 -1 157189 1.1127829202450812e-04</internalNodes>
      <leafValues>
        -1.1065583676099777e-01 1.8485528230667114e-01</leafValues></_>
    <_>
      <internalNodes>
        0 -1 67187 -1.0565115138888359e-02</internalNodes>
      <leafValues>
        -5.4252773523330688e-01 3.4923449158668518e-02</leafValues></_>
    <_>
      <internalNodes>
        0 -1 125529 2.0993391051888466e-02</internalNodes>
      <leafValues>
        -4.8539467155933380e-02 4.2455524206161499e-01</leafValues></_>
    <_>
      <internalNodes>
        0 -1 25005 -2.4579940363764763e-03</internalNodes>
      <leafValues>
        6.6780763864517212e-01 -2.9980843886733055e-02</leafValues></_></weakClassifiers></stage18>
</opencv_storage>
