<?xml version="1.0"?>
<opencv_storage>
<stage8>
  <maxWeakCount>45</maxWeakCount>
  <stageThreshold>-1.0805616378784180e+00</stageThreshold>
  <weakClassifiers>
    <_>
      <internalNodes>
        0 -1 924 1.3987968675792217e-02</internalNodes>
      <leafValues>
        -3.9524173736572266e-01 7.6142132282257080e-02</leafValues></_>
    <_>
      <internalNodes>
        0 -1 1 1.3101060176268220e-04</internalNodes>
      <leafValues>
        1.2447192519903183e-01 -2.3928736150264740e-01</leafValues></_>
    <_>
      <internalNodes>
        0 -1 161240 -4.1460403008386493e-04</internalNodes>
      <leafValues>
        -2.4493907392024994e-01 1.0557409375905991e-01</leafValues></_>
    <_>
      <internalNodes>
        0 -1 162100 2.5852781254798174e-04</internalNodes>
      <leafValues>
        9.8021432757377625e-02 -2.8941568732261658e-01</leafValues></_>
    <_>
      <internalNodes>
        0 -1 1 -1.8982152687385678e-04</internalNodes>
      <leafValues>
        -2.4299493432044983e-01 1.4421072602272034e-01</leafValues></_>
    <_>
      <internalNodes>
        0 -1 86324 -5.7267127558588982e-03</internalNodes>
      <leafValues>
        4.1806837916374207e-01 -7.7007673680782318e-02</leafValues></_>
    <_>
      <internalNodes>
        0 -1 90119 7.8983038663864136e-02</internalNodes>
      <leafValues>
        4.5030772686004639e-02 -5.9801399707794189e-01</leafValues></_>
    <_>
      <internalNodes>
        0 -1 21651 4.0936906589195132e-04</internalNodes>
      <leafValues>
        1.0939654707908630e-01 -2.5822487473487854e-01</leafValues></_>
    <_>
      <internalNodes>
        0 -1 111524 5.0174072384834290e-03</internalNodes>
      <leafValues>
        -8.1088796257972717e-02 3.7001249194145203e-01</leafValues></_>
    <_>
      <internalNodes>
        0 -1 125655 -5.1207050681114197e-02</internalNodes>
      <leafValues>
        -6.1855089664459229e-01 6.1810273677110672e-02</leafValues></_>
    <_>
      <internalNodes>
        0 -1 3189 -1.2314187362790108e-02</internalNodes>
      <leafValues>
        4.8369210958480835e-01 -6.6717557609081268e-02</leafValues></_>
    <_>
      <internalNodes>
        0 -1 9456 5.3899232298135757e-03</internalNodes>
      <leafValues>
        -3.8968399167060852e-02 6.0535979270935059e-01</leafValues></_>
    <_>
      <internalNodes>
        0 -1 132360 -3.0277483165264130e-03</internalNodes>
      <leafValues>
        2.5277492403984070e-01 -1.0241167992353439e-01</leafValues></_>
    <_>
      <internalNodes>
        0 -1 40673 2.3541651898995042e-04</internalNodes>
      <leafValues>
        1.0023406147956848e-01 -2.8626549243927002e-01</leafValues></_>
    <_>
      <internalNodes>
        0 -1 38937 -3.0031078495085239e-04</internalNodes>
      <leafValues>
        -2.2493036091327667e-01 1.1831961572170258e-01</leafValues></_>
    <_>
      <internalNodes>
        0 -1 111270 -1.5529857948422432e-02</internalNodes>
      <leafValues>
        2.4727392196655273e-01 -1.0847295820713043e-01</leafValues></_>
    <_>
      <internalNodes>
        0 -1 137289 9.9187165498733521e-02</internalNodes>
      <leafValues>
        3.7227429449558258e-02 -7.5177675485610962e-01</leafValues></_>
    <_>
      <internalNodes>
        0 -1 72609 -1.3354200869798660e-02</internalNodes>
      <leafValues>
        3.0195668339729309e-01 -8.9311785995960236e-02</leafValues></_>
    <_>
      <internalNodes>
        0 -1 816 -1.4061841368675232e-01</internalNodes>
      <leafValues>
        -5.8656662702560425e-01 4.9342144280672073e-02</leafValues></_>
    <_>
      <internalNodes>
        0 -1 482 -2.0021900534629822e-02</internalNodes>
      <leafValues>
        -5.7022746652364731e-02 5.0573730468750000e-01</leafValues></_>
    <_>
      <internalNodes>
        0 -1 119756 -2.0196214318275452e-02</internalNodes>
      <leafValues>
        4.8059713095426559e-02 -5.8658903837203979e-01</leafValues></_>
    <_>
      <internalNodes>
        0 -1 129379 -1.7837198683992028e-03</internalNodes>
      <leafValues>
        -7.0934331417083740e-01 2.3378059267997742e-02</leafValues></_>
    <_>
      <internalNodes>
        0 -1 66186 2.8182892128825188e-03</internalNodes>
      <leafValues>
        -8.5216917097568512e-02 2.8949716687202454e-01</leafValues></_>
    <_>
      <internalNodes>
        0 -1 88830 2.0858815332758240e-05</internalNodes>
      <leafValues>
        1.1636584252119064e-01 -2.2431840002536774e-01</leafValues></_>
    <_>
      <internalNodes>
        0 -1 161812 7.2612049989402294e-03</internalNodes>
      <leafValues>
        -7.6978728175163269e-02 3.3568906784057617e-01</leafValues></_>
    <_>
      <internalNodes>
        0 -1 153999 1.9205648452043533e-02</internalNodes>
      <leafValues>
        -7.8241035342216492e-02 3.9990216493606567e-01</leafValues></_>
    <_>
      <internalNodes>
        0 -1 69561 -2.5842475588433444e-04</internalNodes>
      <leafValues>
        -3.0936697125434875e-01 9.0871863067150116e-02</leafValues></_>
    <_>
      <internalNodes>
        0 -1 81273 -5.4000709205865860e-03</internalNodes>
      <leafValues>
        4.2537716031074524e-01 -5.7460729032754898e-02</leafValues></_>
    <_>
      <internalNodes>
        0 -1 50320 -7.4398500146344304e-04</internalNodes>
      <leafValues>
        -2.5470528006553650e-01 1.2733899056911469e-01</leafValues></_>
    <_>
      <internalNodes>
        0 -1 116531 -1.2031123042106628e-03</internalNodes>
      <leafValues>
        2.2238595783710480e-01 -1.1531566083431244e-01</leafValues></_>
    <_>
      <internalNodes>
        0 -1 156598 2.9481522506102920e-04</internalNodes>
      <leafValues>
        9.9408924579620361e-02 -2.5542172789573669e-01</leafValues></_>
    <_>
      <internalNodes>
        0 -1 117552 -2.0186058245599270e-03</internalNodes>
      <leafValues>
        2.5845754146575928e-01 -1.1383508145809174e-01</leafValues></_>
    <_>
      <internalNodes>
        0 -1 112399 1.0968720540404320e-02</internalNodes>
      <leafValues>
        -1.3336364924907684e-01 1.9673469662666321e-01</leafValues></_>
    <_>
      <internalNodes>
        0 -1 130232 -2.9603557195514441e-03</internalNodes>
      <leafValues>
        -7.0629656314849854e-01 3.8796715438365936e-02</leafValues></_>
    <_>
      <internalNodes>
        0 -1 160238 -1.0600896179676056e-01</internalNodes>
      <leafValues>
        -9.0295352041721344e-02 3.1821110844612122e-01</leafValues></_>
    <_>
      <internalNodes>
        0 -1 72144 -4.3888336420059204e-01</internalNodes>
      <leafValues>
        -7.7614694833755493e-01 3.7187971174716949e-02</leafValues></_>
    <_>
      <internalNodes>
        0 -1 138208 -2.6798651088029146e-03</internalNodes>
      <leafValues>
        -3.6997184157371521e-01 6.3412211835384369e-02</leafValues></_>
    <_>
      <internalNodes>
        0 -1 154427 -3.6189216189086437e-04</internalNodes>
      <leafValues>
        1.9331924617290497e-01 -1.5538647770881653e-01</leafValues></_>
    <_>
      <internalNodes>
        0 -1 128124 -3.1250277534127235e-03</internalNodes>
      <leafValues>
        5.5016529560089111e-01 -4.9985222518444061e-02</leafValues></_>
    <_>
      <internalNodes>
        0 -1 23235 6.4959479495882988e-03</internalNodes>
      <leafValues>
        -7.7051840722560883e-02 3.1784731149673462e-01</leafValues></_>
    <_>
      <internalNodes>
        0 -1 18800 2.8213116456754506e-04</internalNodes>
      <leafValues>
        8.9153476059436798e-02 -2.8965330123901367e-01</leafValues></_>
    <_>
      <internalNodes>
        0 -1 97399 2.5685835862532258e-04</internalNodes>
      <leafValues>
        7.9838149249553680e-02 -2.9241716861724854e-01</leafValues></_>
    <_>
      <internalNodes>
        0 -1 21800 -1.3052266836166382e-01</internalNodes>
      <leafValues>
        1.2360833585262299e-01 -2.0233938097953796e-01</leafValues></_>
    <_>
      <internalNodes>
        0 -1 160079 -2.3954298347234726e-02</internalNodes>
      <leafValues>
        -3.7789276242256165e-01 7.1944408118724823e-02</leafValues></_>
    <_>
      <internalNodes>
        0 -1 128536 -6.8293377989903092e-04</internalNodes>
      <leafValues>
        2.0307494699954987e-01 -1.3767963647842407e-01</leafValues></_></weakClassifiers></stage8>
</opencv_storage>
